// Auto-generated base model for Token Meter. Drop into the extension folder.
window.__TM_BASE = {"W": {"W1": [[-0.0068051634430237274, -7.135139040593839e-05, -0.006807972937286593, 0.004362553891548008, -0.0027134572786361765, 0.0002194809630645742, 0.0012686976446174179, 0.002398431644628112, -0.00659247687348906, -0.001151683333947317, -0.00030880354031932, -0.005935838579940164, -0.0005607828247301372, -0.0017481116848903154, -0.00445014117055255, -0.004150667676427193, -0.0009409817236763497, 0.0017242865752967814, -0.0024638643957175213, 0.0037979766725094485, -0.00030157744741942055, -0.011245697593718448, -0.004230778213554696], [-0.17623567868965836, 0.02319485000588355, -0.29532844606858877, 0.13858178345113556, 0.002562378086114524, -0.02324222925532751, 0.05172999639218608, 0.0660574907287038, -0.1854327134012854, -0.10232325794841263, -0.007068390454198468, -0.1529306516319485, -0.04475837483003353, -0.05059475394894272, -0.14455700574564861, -0.10198176122128469, -0.03668182310957658, 0.007552356995298732, -0.06792828794600415, 0.09451048979996288, -0.007539826459357957, -0.2001281410873112, -0.1132343297501128], [4.252892428972663, 0.3402699830554079, 0.3787734676251329, 0.2299304795902435, 0.024712685117236417, 0.40469388663740685, 0.6542896552705312, -0.2156118022842579, 0.13574864091369465, 0.45317118572010334, -0.2608232980885351, 0.2624716685368046, 0.2490709336655886, 0.2722207228045999, -0.026893996738583146, 0.3957588131865636, -0.002739295502125854, -0.4981344355679489, 0.10768487466152094, 0.05953325833679873, 0.004158575740876495, 0.030352949636203934, 0.16469883278861908], [-3.415000537342365e-06, -1.9064579198711291e-06, 1.1169452682081245e-05, -5.776045558789539e-06, 2.7108697738677523e-06, -9.754051163847742e-06, -4.623560451421899e-06, -9.95685055152434e-06, -2.3033302112367593e-06, 3.147515295165975e-06, 2.861096493466142e-06, 1.5894262159578072e-06, -4.388036734552868e-06, -1.2346185295425796e-06, 4.1050207076881545e-06, 1.4161555728541852e-06, -1.3513307824796893e-06, -1.8116041813679265e-06, 1.93696243041105e-06, 7.779148183421211e-07, 6.68725427061552e-07, 6.664083972568435e-06, -1.11163082133221e-06], [-1.3435801171082538, 0.18300163300699854, 0.09888726724887856, 0.3582639865144775, 0.28739551575046896, 0.11371721104821074, 0.3699576110028281, 0.2889792796235699, 0.1929485119965911, 0.10824724535412665, -0.1709708181896481, 0.17272834229209416, -0.16060256462209738, -0.22086742294132833, -0.24037470901962618, 0.2301212871025631, -0.21474547473710737, 0.15731229787208803, -0.11111854670005365, -0.08636684415085936, 0.1201131094710154, -0.07559212049513377, -0.10649871082422348], [0.011778699512372617, -0.019569843834280308, 0.1034398921876905, -0.0612501357504952, 0.0036355539821860175, -0.04889405546636565, -0.033208933334604666, -0.07254261429445685, 0.025264156361734777, 0.020184416871685987, 0.035688609468760533, 0.022440438820811013, -0.011024558656316612, -0.0029935175282925627, 0.04407781438094211, 0.02110921071955782, 0.01268703775437642, -0.016729083567563547, 0.023648967721585618, -0.019228254320913265, 0.0056762413480966984, 0.08536052018663981, 0.03683125604068198]], "b1": [0.006708322877151237, 0.0195141734224549, -0.594614213852151, -1.460101789778717e-05, 0.8840465967641388, -0.058052079994709044], "W2": [0.003432070970395361, 0.15477542668461444, 3.042236046977113, 3.574007816290457e-06, 0.9368967258345994, -0.009751540328702579], "b2": 2.041027111640063}, "sigma": 1.1, "D": 23, "H": 6, "v": 3, "n": 30879};
